walk 0.014384 0.005464 -0.006895 0.005803 -0.003724 0.007710 0.011878 -0.000235 -0.002899 -0.001448 0.007417 -0.012645 -0.007532 0.004274 0.002025 0.018224 -0.009819 0.006824 0.014356 0.002758 0.009595 0.003663 0.001456 -0.001606 0.008871 -0.002339 0.013927 -0.009588 -0.009897 -0.004677 -0.009465 -0.006389 0.001458 -0.014671 0.002183 0.003745 -0.011243 -0.002299 0.002865 0.001718 0.011674 -0.014999 -0.016763 0.007511 -0.005635 -0.002633 -0.005335 0.002988 0.005216 -0.010903
ambitious -0.005005 -0.003265 0.002598 -0.000423 -0.002201 -0.009526 0.010114 -0.007006 0.003183 0.000114 -0.003943 -0.007906 0.003153 -0.004458 0.007021 0.006988 -0.007391 0.006163 0.011833 -0.007809 0.015622 -0.003050 -0.005517 0.005836 -0.013202 0.004410 -0.002081 -0.004842 -0.001466 0.002528 0.009069 -0.001048 0.014883 -0.016153 0.004316 -0.008093 -0.001906 0.012508 -0.009448 -0.001297 0.008257 -0.000305 -0.005905 -0.004266 -0.015734 -0.005686 0.004732 -0.000886 0.011529 0.016539
bury 0.009211 -0.011365 0.003843 0.015507 -0.001106 0.000268 0.008235 0.004618 -0.002595 0.011990 0.008181 -0.013423 -0.002901 0.003723 0.013160 -0.009016 0.003380 0.003056 0.002908 0.001026 -0.010065 -0.009457 0.004227 -0.015159 0.003811 -0.011627 0.010405 0.012140 -0.012702 0.007843 0.003101 -0.004473 -0.010454 -0.011422 -0.003258 0.005860 0.002396 0.008489 -0.002283 -0.009616 -0.014370 -0.012519 -0.006536 -0.007559 0.009712 -0.005547 -0.010954 0.002968 -0.008324 -0.003791
camp 0.014802 -0.001488 -0.012251 -0.003925 0.007711 -0.007446 -0.001071 0.008003 -0.005661 0.000532 -0.001813 -0.010402 0.004361 0.004357 -0.010820 -0.011509 -0.012046 -0.009211 -0.015230 0.002359 -0.011182 0.000200 -0.013856 -0.006625 -0.016101 0.012336 0.010654 0.006201 -0.009241 0.012907 -0.000720 0.003530 -0.010365 0.013704 -0.006569 -0.003195 -0.013158 0.007585 -0.001367 -0.003851 0.007095 0.006588 0.009800 0.009991 -0.011552 0.008846 -0.007271 -0.000521 0.003125 0.012867
competition 0.009810 0.000013 0.006536 0.004790 0.010106 -0.000812 -0.001372 0.004639 -0.012064 0.009592 -0.011079 0.010051 -0.012928 -0.000311 0.000106 0.013928 -0.001417 0.009002 0.010129 0.008034 -0.015701 -0.010054 0.004759 0.000897 0.007089 -0.005054 -0.003660 0.001090 -0.006589 -0.005059 -0.007310 -0.007440 0.008380 0.002982 -0.005363 0.003003 -0.001554 -0.001756 -0.003090 0.007450 -0.008412 0.004759 0.002193 0.010573 0.010558 -0.007483 0.003909 0.010969 0.001872 -0.015864
conscious -0.002846 0.001572 0.010667 0.012250 -0.011651 -0.011791 -0.010985 -0.010533 0.000658 -0.009467 0.005557 -0.001189 0.005116 0.013637 0.016889 -0.006156 -0.003866 -0.000988 0.009987 0.005201 0.002748 -0.004451 -0.003078 -0.013311 0.004338 -0.017662 -0.016552 0.007021 -0.002375 -0.015375 -0.000906 0.004843 0.002274 -0.009171 -0.006001 -0.011151 0.002094 -0.003752 0.005270 -0.000402 0.004049 0.007916 0.004499 0.005618 -0.002280 -0.002953 0.015189 -0.007904 0.001488 0.007952
creature 0.003802 0.004637 0.004057 -0.002251 0.014001 -0.001293 0.016745 -0.001143 0.010408 -0.001112 0.006352 -0.001026 0.001005 0.006459 -0.015630 -0.013543 -0.003300 -0.004819 0.015765 -0.012262 0.009899 0.008325 -0.003734 0.012834 0.005477 0.000448 0.000149 -0.007456 -0.007326 -0.001050 -0.010219 -0.013650 -0.007584 0.005584 -0.015518 -0.006709 -0.004935 0.009479 -0.002194 -0.007017 -0.008217 0.003973 -0.005742 -0.013283 -0.000549 -0.004604 -0.003769 0.016945 -0.005933 -0.004325
field 0.004074 0.004679 -0.012596 0.003303 0.003243 0.002682 0.001444 -0.002234 -0.003059 0.004826 -0.003725 -0.004352 0.014417 0.008059 0.002293 -0.001030 0.009266 0.007506 -0.007961 -0.009410 -0.004240 0.009077 -0.014584 0.002991 0.007803 0.016160 0.007362 -0.007522 -0.007282 -0.006090 0.010732 0.001768 0.003826 -0.005761 0.002549 0.001696 0.006243 -0.001481 -0.009829 0.008778 -0.006190 0.005237 -0.004449 -0.005337 -0.003644 -0.002100 0.001534 -0.005595 -0.006255 0.002027
hissing 0.003956 -0.006408 0.005573 -0.010553 -0.000481 0.004459 -0.015149 0.001076 0.000566 -0.004916 -0.000549 0.014254 0.007512 0.000815 0.006586 0.005628 -0.001643 0.012030 0.006906 -0.002980 0.002269 0.015555 0.006587 -0.002493 0.014658 -0.007560 0.005913 -0.004839 0.004001 0.013658 0.007137 0.000034 0.010882 0.010417 -0.007784 -0.001102 -0.001238 0.007447 0.006703 0.005319 -0.017238 0.010948 0.002329 0.004959 -0.004182 -0.004494 0.000761 0.013567 -0.003423 -0.009500
invite -0.000933 -0.008552 -0.001151 0.004920 -0.006568 0.008236 -0.006543 -0.000721 -0.004518 -0.000291 0.003891 0.002910 0.001276 -0.000990 0.002280 -0.005005 0.006988 0.008660 -0.000430 0.002945 0.014663 -0.011083 -0.014738 -0.015754 0.002816 -0.015647 -0.006396 -0.003274 0.006272 0.001073 -0.005443 -0.001158 0.003809 -0.000727 0.004366 0.000200 -0.011682 0.000570 -0.003624 -0.000297 0.004558 0.005293 -0.002924 0.005149 -0.010098 -0.005806 0.004903 -0.015300 -0.006546 0.018224
locket 0.005729 0.000961 -0.000947 0.001240 0.006831 0.000819 -0.008942 0.008328 -0.001803 0.004843 -0.002230 0.007819 -0.009855 -0.007201 0.013712 -0.011174 -0.010764 -0.016795 0.007191 0.010061 0.007860 0.004595 0.007364 -0.008392 0.004376 0.005634 -0.011152 -0.013039 -0.005940 0.009078 -0.005294 0.003080 -0.015012 -0.012763 0.007757 -0.003668 0.004452 -0.009439 0.004857 -0.004994 0.005924 0.008266 0.009012 0.000990 0.003182 -0.003211 0.010837 0.001387 -0.003500 -0.000263
nest 0.006139 -0.006346 -0.011003 -0.003068 -0.003315 0.013536 0.002691 -0.003419 -0.001501 0.006939 0.005747 -0.006406 -0.002948 -0.006162 -0.003525 -0.005538 0.006090 0.000540 0.010584 -0.000063 0.005857 -0.012715 -0.004648 -0.017177 0.007599 -0.006480 0.003597 -0.009603 0.002239 -0.006187 -0.004941 0.012151 -0.003313 0.005497 0.003316 -0.016593 -0.005700 -0.006444 0.010257 0.009386 0.005845 0.012575 -0.001286 0.014855 0.003485 0.001214 -0.004218 -0.011099 -0.015178 0.017756
plantation 0.005407 0.002432 -0.001112 0.007683 -0.017482 -0.002984 0.007966 0.004177 -0.012553 -0.008530 0.007244 0.014490 0.001712 -0.001190 -0.000441 -0.017994 -0.009113 0.001020 0.004206 -0.010234 0.005449 -0.008787 -0.002030 0.008480 0.001839 -0.006694 -0.013328 -0.012275 0.010087 -0.006146 0.014289 0.003117 -0.004974 -0.009368 0.013132 0.005700 0.006267 0.001301 0.009540 -0.003545 -0.005851 -0.002542 -0.003601 0.010274 -0.008764 0.006511 -0.005531 0.007993 0.004551 -0.000229
record -0.000081 0.008311 -0.000803 -0.001491 -0.005179 -0.001404 -0.000198 0.003246 0.002282 -0.000834 0.004161 0.003819 -0.007861 -0.000432 -0.007776 -0.001451 0.001741 -0.017461 -0.000535 -0.008520 0.009858 0.003952 0.008956 0.000094 0.005216 -0.006549 0.011022 -0.011939 -0.018098 0.005516 0.000410 0.018449 0.013237 0.004971 -0.004009 0.002521 -0.005444 -0.008103 0.002486 -0.016103 0.006372 0.010041 0.004798 -0.013721 -0.013105 0.004447 0.006321 0.003008 -0.001365 -0.006330
sleep 0.003295 -0.007979 -0.000301 0.008508 -0.000380 -0.005868 -0.006096 -0.006508 0.002027 0.008278 -0.003437 -0.006421 0.005180 0.010697 0.000024 -0.002038 0.017489 -0.000123 -0.009391 -0.009937 -0.002599 -0.003507 -0.006678 0.006403 0.007919 0.004607 0.012804 -0.004667 0.001559 0.003876 0.009188 -0.007977 -0.000156 -0.008241 -0.014586 -0.000317 -0.009756 -0.009967 -0.012086 0.004965 0.001912 0.013064 -0.004032 0.003102 0.016222 0.007122 -0.010930 0.001753 0.011609 -0.002258
tooth 0.016989 0.015059 -0.000985 0.004471 -0.002355 -0.007304 -0.000414 0.003349 0.011210 0.014663 -0.003260 -0.007098 -0.006526 -0.001143 0.007778 0.013707 0.002325 0.003844 -0.013410 -0.015248 0.003300 0.000566 -0.001929 -0.007573 -0.000043 0.016479 0.012553 -0.000607 0.000507 0.012664 0.001921 -0.015587 -0.005705 -0.007120 -0.000638 -0.000377 -0.000839 0.004638 -0.011345 0.007131 -0.010798 0.005239 -0.012277 -0.002064 0.005380 0.011442 -0.000068 0.001641 0.002027 -0.001433
trees 0.010899 -0.002640 -0.014531 -0.006763 0.010033 0.007905 -0.004161 0.001290 0.012275 -0.011394 -0.001877 0.006570 0.006264 -0.006631 0.002896 0.012379 0.013656 0.010212 -0.018149 0.000434 0.009783 0.011361 0.005952 0.004639 -0.015606 -0.015264 0.016015 0.002432 0.011570 -0.001149 0.011721 0.003774 0.008881 -0.003943 -0.002520 -0.012183 -0.011719 0.006815 -0.004581 0.001099 -0.007051 0.014196 -0.002594 0.002281 -0.002283 -0.009834 0.004175 0.008029 -0.000768 -0.014151
unequal -0.002648 0.004064 -0.005760 -0.007237 -0.016579 -0.002597 -0.000750 -0.009656 -0.003608 0.007683 -0.001186 -0.006616 -0.000482 0.008623 -0.007638 -0.005756 -0.000175 0.006692 -0.004692 0.012077 -0.009861 -0.011020 0.012000 -0.003534 0.011128 0.001363 -0.005289 -0.007049 0.007489 -0.013224 0.010682 0.002165 -0.000821 -0.003716 0.003051 0.017420 0.000116 0.011707 0.015208 -0.001563 0.004655 -0.006148 -0.001624 0.001326 0.004021 0.001783 0.004552 -0.009070 -0.014399 -0.007402
windy 0.000444 -0.001224 0.002187 -0.001162 0.013278 0.009421 0.005802 0.005559 -0.003530 -0.013072 0.011376 0.005521 0.017503 -0.004397 -0.001664 -0.000642 -0.010594 -0.008219 -0.008991 -0.001316 0.013503 0.011783 -0.002037 0.003384 -0.009074 0.000671 -0.000546 -0.000712 -0.005150 0.005658 0.002567 -0.000143 -0.003835 -0.009235 0.004827 -0.001954 0.000257 -0.001150 0.002572 0.011401 0.006384 0.005288 0.009112 0.005961 -0.008917 -0.001312 -0.001815 0.006166 0.010897 -0.003450
wobble 0.004864 0.012025 -0.001097 -0.006771 0.017489 -0.006275 -0.002872 -0.000675 -0.008958 -0.016208 -0.002454 -0.006221 0.010017 -0.006692 0.003004 -0.013511 0.013126 0.010237 0.003138 -0.008573 -0.007235 0.001167 -0.003160 0.014348 0.014180 -0.012745 -0.014282 0.005633 -0.008398 -0.013747 0.012805 0.003023 0.004846 0.006080 0.002013 -0.004571 -0.018587 -0.001323 -0.007236 -0.006053 0.003866 0.004774 0.007293 -0.009528 0.002366 0.014390 -0.016289 0.006485 -0.005407 -0.006342
zonked -0.010819 -0.018843 0.014162 0.009064 -0.016520 0.008696 0.004184 0.009455 -0.004514 -0.012209 0.011385 -0.005071 -0.008306 -0.001699 -0.008830 -0.004797 -0.000641 -0.001018 -0.004264 0.007933 0.008046 -0.006328 -0.007149 -0.010916 0.017460 0.000034 -0.004890 0.002965 -0.000083 0.006449 0.000034 0.004060 -0.011880 0.002666 0.005690 0.007511 0.001846 -0.013859 -0.012893 0.018374 0.006951 -0.004769 -0.004662 -0.007556 0.012437 -0.001195 -0.002987 -0.006809 0.008271 0.005731
act -0.002696 0.011278 -0.007869 -0.004906 0.003924 -0.004409 -0.003496 -0.002755 0.008493 -0.005737 0.008017 0.001735 -0.012709 -0.002120 0.001272 0.006890 -0.006126 -0.013509 0.003323 0.013249 0.013680 -0.000518 0.001084 0.000857 -0.006429 -0.011910 0.004550 -0.013601 0.011552 0.005766 0.000381 0.006080 0.006909 -0.003415 -0.008439 -0.006199 0.004335 -0.001799 -0.011821 0.009984 0.016999 0.001566 -0.004769 0.004321 -0.007342 0.010856 0.000498 -0.000964 -0.006320 -0.008768
cooing -0.011406 0.003230 0.010730 0.006857 -0.005718 -0.016005 0.009744 -0.012341 0.013330 0.001888 0.006022 0.000507 0.005173 0.001412 0.011971 0.002711 -0.001604 0.012693 -0.000243 -0.005202 0.007088 0.017101 0.010005 -0.007777 -0.002969 0.004173 -0.002368 -0.005195 0.002087 -0.010871 0.010586 0.002943 -0.008327 0.000613 -0.001503 0.001166 0.002381 0.003946 -0.004340 0.005017 -0.003416 0.003557 -0.016405 -0.002485 0.001301 0.016090 0.001676 0.002561 0.005473 -0.002350
crack 0.011572 0.002227 -0.006110 -0.001565 0.001308 0.002033 0.003778 -0.014487 -0.008625 -0.011305 0.007676 -0.008304 0.001511 0.017866 -0.005848 -0.000986 -0.009220 0.001419 0.004705 -0.010516 0.008352 -0.001371 -0.001926 -0.005624 0.009462 0.011760 0.003543 0.004504 -0.000411 -0.002869 -0.001872 0.013045 0.003970 -0.009143 -0.015754 -0.005047 0.010852 -0.004986 0.013720 -0.002479 0.000816 0.003822 -0.003685 -0.007087 0.004002 -0.008625 0.003952 0.009278 -0.013548 -0.010908
cumbersome -0.010507 0.006074 0.006478 0.012435 -0.006234 -0.000570 -0.000653 -0.012377 -0.007130 0.001046 0.006181 0.005769 -0.003273 -0.001676 0.007212 0.009468 -0.000754 -0.005383 0.002256 0.001530 0.010080 0.011547 -0.005718 -0.002293 -0.009061 0.001070 -0.009723 -0.002895 -0.001125 -0.000946 -0.005433 0.014859 0.014609 0.003195 -0.006315 -0.001442 0.008771 0.001483 -0.007578 0.001413 -0.011495 -0.003106 0.001393 -0.002624 0.004489 0.000515 -0.005350 -0.005507 0.000461 -0.005912
exuberant -0.002981 0.015484 -0.006051 -0.006055 -0.001656 -0.002150 0.003999 -0.015209 0.009334 -0.012830 0.001715 -0.009393 -0.004574 0.002023 0.006384 0.002703 0.004401 -0.011892 0.002719 -0.010624 -0.013188 -0.012704 -0.002021 0.000776 -0.014085 -0.007190 -0.000349 -0.006465 -0.006777 -0.000717 0.003900 0.003875 -0.003345 -0.004417 -0.000127 0.001675 -0.013115 0.005465 0.004067 -0.004776 0.004645 -0.003488 -0.008205 0.003374 -0.005004 -0.001207 -0.002715 -0.005032 -0.010324 0.005642
famous -0.012629 0.017615 0.011629 0.005502 -0.002710 0.013834 0.002951 0.001007 -0.004659 0.016909 0.005249 -0.007073 -0.004910 -0.005549 -0.013980 0.001476 -0.000884 0.011316 -0.000379 -0.013978 0.009799 0.000912 0.005697 -0.006716 -0.005205 -0.014818 -0.006468 0.008863 -0.007328 0.004412 -0.008042 0.007486 0.011936 0.016085 0.001743 -0.000856 0.015557 -0.004047 0.002123 -0.004367 0.002724 -0.001196 0.000394 -0.006305 -0.003130 -0.018190 -0.009165 -0.003729 -0.008259 -0.000692
frightening -0.013797 0.009974 0.009259 0.000054 -0.006870 -0.001126 0.002127 -0.005448 -0.005789 0.002639 0.012194 -0.007463 0.013010 -0.002903 -0.014193 -0.007231 -0.011260 0.006909 0.014543 -0.006083 0.000186 0.010977 -0.000439 0.003680 -0.000856 0.005181 -0.010346 -0.013555 -0.001710 0.009259 0.009630 0.015380 -0.017132 -0.009865 -0.012407 0.005832 -0.004587 -0.011069 -0.012388 0.006288 -0.008031 -0.007092 0.001470 -0.003799 0.009936 -0.013239 -0.003448 0.006048 0.006866 -0.008237
general 0.005395 0.011813 -0.007733 -0.001806 0.014770 0.003495 -0.003478 -0.010422 -0.000242 -0.001228 0.012877 0.000796 -0.009792 0.006678 0.004442 -0.004389 -0.015129 0.009607 0.001825 0.011899 0.006205 0.000043 -0.002030 0.000653 -0.000537 -0.015735 0.000959 -0.005690 -0.003894 -0.004525 0.010332 0.004245 -0.009728 0.000436 0.005269 0.002118 -0.006717 0.009709 -0.008843 -0.004323 0.001500 -0.009563 0.003828 0.001724 0.011306 -0.001355 -0.000819 0.000699 -0.002021 -0.001617
jellyfish -0.004418 0.002054 -0.004695 0.002526 0.013469 0.003977 0.014100 0.011108 0.010465 0.009544 0.005901 0.007425 -0.007141 -0.002611 0.012937 -0.000277 0.000199 0.002835 0.008865 0.006740 -0.002317 0.007384 -0.012225 0.005169 0.006300 -0.004520 -0.016232 0.009317 0.005146 0.002401 0.004380 -0.014106 0.007014 0.012427 0.004554 -0.003182 -0.010860 -0.004547 -0.005013 0.006142 -0.001075 -0.016801 -0.001070 -0.002362 0.008695 -0.004463 -0.007745 0.001753 0.002986 0.006090
market -0.001384 0.006915 -0.002519 0.009334 -0.007388 -0.000375 0.001833 0.016602 -0.011762 -0.002000 -0.010905 0.010149 0.006441 0.003888 -0.002179 -0.017833 -0.017060 0.006357 0.004982 -0.002241 0.012447 0.005752 0.000364 0.006115 0.002328 0.000511 -0.002241 -0.016658 0.013035 0.000728 -0.006366 -0.002896 0.001246 0.004353 0.007815 -0.001970 -0.011067 -0.002184 -0.000711 0.015663 0.007215 -0.003589 0.004814 0.000014 0.006603 -0.012831 0.002508 -0.012432 -0.006507 -0.003403
mute 0.000171 -0.002332 0.004980 -0.015611 0.011046 -0.008404 -0.011207 0.008951 -0.003141 -0.002676 0.000686 0.007759 0.002284 -0.008656 -0.013141 -0.005772 -0.005340 -0.003177 -0.003427 -0.004950 -0.003808 0.003706 -0.000575 -0.000953 -0.011274 0.001534 0.014886 0.004329 0.005816 0.010406 0.000868 -0.002144 0.011338 -0.014235 0.007452 0.005863 0.001648 0.007410 -0.005978 -0.002604 -0.006433 -0.004955 0.006674 0.009235 -0.013936 -0.003988 -0.006154 0.003687 0.003195 0.007088
nappy 0.010185 -0.001211 -0.002097 0.002103 0.011268 0.014058 0.004606 0.004102 0.013648 -0.009950 0.001957 -0.000481 -0.003988 -0.007069 0.000351 -0.012897 -0.007192 -0.010610 0.001090 -0.001069 -0.006302 -0.015274 0.001866 0.011004 -0.006902 -0.000110 0.001295 0.004475 0.003680 0.004929 -0.006159 0.004454 0.002289 0.015881 0.008870 0.008334 0.006842 -0.011647 -0.014461 0.004845 -0.012425 0.002502 0.012633 -0.006628 0.012569 0.009458 0.016595 0.000867 -0.005092 0.003021
omniscient -0.011780 0.015158 0.001325 0.005233 -0.008495 -0.000107 0.010069 0.001612 0.005251 0.009989 -0.002724 -0.003274 -0.016067 0.007611 0.010981 -0.007241 0.005928 0.009413 0.007890 -0.001215 0.002382 0.015902 0.004591 -0.009044 -0.013469 0.008493 0.008164 0.015091 -0.019275 0.008571 -0.003264 -0.007369 -0.009208 0.012539 -0.015051 0.003890 0.010937 0.006304 -0.002994 0.006047 0.012453 -0.016108 -0.001722 0.012063 -0.003293 0.001229 -0.008446 -0.009464 -0.014831 -0.007194
payment -0.004635 0.015789 0.012336 0.000072 -0.000850 0.003758 -0.012279 -0.002654 0.010806 -0.002144 -0.001127 -0.002643 -0.012962 -0.004299 -0.004353 0.002326 0.002221 0.007219 0.000951 -0.002591 0.004618 -0.015701 0.005177 -0.007578 -0.007767 -0.005737 0.005932 -0.009077 -0.003424 0.003705 0.000148 0.001385 0.000972 -0.000531 0.000883 -0.016940 -0.011510 -0.004612 -0.007345 -0.006455 -0.018946 0.001633 -0.003134 -0.000381 -0.005881 -0.014749 -0.013425 0.003166 0.006320 0.000347
quixotic 0.000387 -0.001198 0.004440 0.006893 0.001767 -0.006361 0.003234 0.008741 0.001584 -0.000357 0.010487 0.009570 0.002692 -0.007380 0.000457 0.001031 -0.008609 -0.001608 -0.008389 0.006965 -0.002396 -0.005720 0.006625 0.011901 -0.019421 -0.005164 -0.002364 0.005565 -0.002909 -0.000130 0.006138 -0.002986 -0.008939 -0.000744 0.003507 -0.008272 -0.014320 0.006205 0.002057 -0.007312 -0.001230 0.007261 -0.004782 0.003945 0.003519 0.001974 0.000896 -0.007772 -0.003220 0.006765
redundant 0.004982 -0.002877 -0.007616 -0.002125 -0.000538 -0.011898 -0.000917 -0.008921 0.005909 0.000522 0.002833 -0.004463 0.008657 0.001641 0.008262 0.006211 0.002062 0.008425 -0.001731 -0.015622 -0.014478 -0.008156 0.001513 -0.002747 0.010477 0.010438 0.011219 0.002503 -0.002042 0.012804 -0.004170 -0.002526 -0.006935 0.003368 -0.001445 -0.007261 0.013031 0.002552 0.002276 0.005645 -0.003106 0.011416 0.002777 -0.001926 0.014035 -0.001723 -0.012865 0.002240 -0.013343 0.000757
sick 0.018775 0.000818 -0.003215 -0.002179 -0.006457 0.002465 -0.015142 -0.003797 0.001606 -0.003256 0.005224 -0.003669 0.007651 0.002160 -0.000375 0.008391 -0.001079 0.002401 -0.002892 0.004755 -0.005091 0.012232 0.001443 -0.014352 0.017318 -0.005289 0.006082 0.003074 0.008858 0.002656 0.009537 0.007343 -0.006612 0.005054 0.004972 -0.004041 0.003164 -0.014741 0.010069 0.006136 -0.007555 -0.014002 0.010732 0.005943 -0.006430 0.000254 0.002414 0.000503 0.000387 0.015630
spare 0.004461 0.003481 0.011452 -0.009411 0.005010 -0.003679 0.004678 0.006507 -0.001475 0.004468 0.006762 -0.014390 -0.002499 0.000679 0.002750 0.000000 0.000657 0.005898 -0.016350 0.017162 -0.006635 -0.016251 0.011649 -0.004716 0.007990 -0.008612 0.004998 -0.001957 -0.010191 0.013388 -0.002738 -0.001218 -0.005113 -0.006505 0.006057 0.013032 0.011530 0.004724 -0.007773 0.001465 -0.007419 0.012498 -0.009231 -0.001392 -0.000125 -0.000126 0.002430 0.006240 -0.009475 0.008792
support 0.008937 -0.009286 -0.002043 0.006930 -0.001019 0.012170 0.003542 0.011763 0.006475 -0.004394 -0.017325 -0.009817 -0.003439 0.002455 -0.004760 -0.007769 0.000420 0.000847 0.005175 0.001006 0.007399 -0.012208 -0.011507 0.014367 0.005527 0.002879 -0.002475 -0.002336 -0.017649 0.006854 0.002967 -0.002493 0.003947 0.013786 0.010380 0.011245 -0.007815 -0.009609 -0.010629 -0.008643 -0.000736 0.002756 0.005106 -0.016574 -0.009755 0.013390 0.007504 -0.003801 0.002842 -0.008742
tank -0.001766 0.011874 -0.004365 -0.016867 -0.013026 -0.008906 -0.002077 -0.004518 -0.002913 0.016061 -0.010493 -0.000759 0.008927 0.001170 0.001904 -0.016222 0.005909 -0.008547 0.016286 0.007700 -0.010036 0.001149 0.006312 -0.010499 0.000526 -0.001328 -0.000314 -0.000200 -0.004478 -0.015879 0.004093 0.006185 0.016805 0.004327 -0.010270 -0.003841 -0.008518 0.005437 0.006446 -0.013769 -0.002997 -0.008708 -0.011800 0.011093 0.003080 -0.005552 0.007317 0.004811 -0.006159 0.014246
ad 0.010190 0.004441 -0.009103 0.011437 -0.007767 -0.002861 -0.004264 -0.004773 0.016329 0.009312 0.004532 0.013037 0.007254 0.013086 -0.003146 -0.011174 0.009501 0.008711 0.010450 0.007616 -0.018384 -0.011655 -0.000594 0.006500 -0.007242 -0.002978 0.013453 0.004612 0.003477 0.002858 0.011576 0.001861 -0.000517 0.000340 -0.005794 -0.010243 -0.003625 0.014893 0.016693 -0.003528 0.018112 0.001156 -0.000219 -0.000402 0.003057 -0.003337 0.013267 0.007627 0.006633 0.008530
adjoining -0.004532 0.003976 -0.013046 0.003861 -0.004334 0.006098 -0.013374 0.008344 0.004974 0.002544 -0.011578 0.003385 0.013221 -0.003707 0.011323 0.006301 -0.013098 -0.018221 -0.003849 0.000943 -0.006352 -0.005316 0.003452 0.016799 -0.006482 0.016006 0.001121 -0.011939 -0.015410 0.000667 0.017634 0.009658 0.000634 -0.000325 -0.005912 0.014260 0.006093 0.003554 -0.000372 0.000742 0.005109 -0.004277 0.003820 -0.001719 0.013338 -0.005004 0.003287 0.004708 0.007272 -0.010595
border 0.003641 -0.005303 -0.005477 0.010424 -0.010900 0.007717 -0.013719 -0.000341 -0.015466 0.007531 -0.003248 -0.005877 -0.008969 -0.000021 0.001463 -0.014608 -0.003204 -0.007527 0.000884 -0.002534 -0.004586 -0.007637 0.004283 -0.002019 0.002366 0.011586 -0.013643 -0.012475 -0.013999 -0.002417 -0.001226 -0.010306 0.011832 0.014566 -0.016746 0.001859 -0.002251 -0.012871 -0.003622 0.002294 -0.008848 0.008358 0.004207 0.001759 0.013924 0.000959 0.001786 -0.006804 -0.001608 -0.005591
boundless -0.009499 -0.006856 0.009702 0.009946 0.006662 -0.004265 -0.004461 -0.001527 -0.000996 0.008478 0.008693 -0.002752 -0.000606 -0.006954 -0.010923 0.006984 0.011242 0.010858 -0.009694 -0.000904 0.011083 -0.007704 0.008361 -0.013014 -0.002026 -0.009527 0.004868 -0.007327 0.004987 -0.011234 -0.007621 0.000702 -0.006888 0.005311 0.009805 -0.007723 0.010539 0.006790 -0.000429 -0.000023 0.004877 0.011198 -0.015029 0.005485 0.009560 0.001110 -0.000019 -0.008972 0.005268 0.002200
clap -0.001236 -0.004003 -0.013347 -0.007239 -0.004714 0.000229 0.000138 0.001836 0.007001 -0.008786 -0.015015 -0.003036 -0.001207 0.006990 0.011347 0.004262 -0.015217 -0.018344 0.006368 -0.008995 0.010657 0.010786 -0.003226 0.003593 0.001437 0.001005 -0.005683 0.003002 0.005757 0.004543 0.007214 0.001681 0.000479 -0.008566 -0.000890 -0.005665 -0.003664 -0.006413 0.007150 0.005708 -0.012587 0.008787 -0.000211 0.001382 0.009952 0.002118 -0.007644 -0.013147 -0.000727 -0.012852
cow 0.001022 -0.009852 -0.006461 -0.004713 0.006353 0.000413 0.005475 0.003008 -0.004256 0.002586 -0.006508 0.006633 0.004112 -0.001164 -0.010367 -0.000902 -0.000879 -0.003683 0.007082 0.001826 -0.001286 0.012537 0.002354 -0.009592 0.002322 0.008456 -0.001089 0.006525 -0.013492 -0.009360 0.000695 -0.006286 0.006126 -0.012161 0.002224 0.001482 -0.003090 0.011375 0.004640 -0.010183 -0.000038 -0.006011 0.011538 -0.000305 -0.000304 0.012401 0.001718 0.014445 0.000419 -0.007024
crib 0.001400 0.010112 -0.004829 0.003183 -0.002912 0.003640 -0.008623 -0.000238 -0.008329 -0.002915 0.006815 -0.015789 0.005658 0.006023 0.011582 -0.000246 0.005291 0.001462 -0.008235 -0.000470 0.001258 -0.015950 0.014313 0.011233 0.001976 -0.005184 0.001275 0.014712 -0.003050 0.007225 -0.015508 0.004476 0.001993 0.001368 0.007285 -0.000298 -0.001181 -0.006003 -0.005010 0.001076 -0.002175 0.005786 0.001985 0.007765 -0.012331 0.010884 0.004156 -0.000944 0.004500 -0.011952
crowded -0.003884 0.000060 0.000501 -0.014476 -0.001685 -0.002368 -0.000612 -0.007820 0.003392 -0.001102 0.003406 -0.009653 -0.001690 -0.003994 0.003709 -0.001494 0.004216 0.007956 0.001676 -0.016526 0.000797 -0.000235 -0.010834 0.000059 0.012565 0.002368 0.008636 -0.004047 0.013246 -0.008681 -0.001712 0.003846 -0.000343 -0.012282 0.002161 -0.007852 -0.003547 -0.014313 0.002750 0.004145 0.011676 0.002639 -0.001836 -0.016900 -0.005635 -0.015707 -0.003092 -0.002610 0.004482 -0.000647
cultured 0.001467 0.008532 -0.004275 -0.005875 0.000024 -0.009774 -0.008330 0.008567 0.011821 -0.010486 0.004868 0.012154 0.002007 -0.005561 0.007577 0.018063 -0.011473 -0.011902 -0.001909 0.000510 0.012217 0.004712 0.000317 -0.006208 0.012856 -0.010481 0.017973 -0.013794 0.000965 -0.003703 -0.016346 0.013179 0.002291 -0.001788 0.007051 -0.000472 -0.002833 -0.009382 0.007213 0.001218 -0.013262 -0.000723 0.001042 0.005656 0.010387 -0.008518 -0.000097 0.001002 -0.008291 -0.010474
deliver 0.006264 0.002529 -0.005926 -0.003588 -0.005031 -0.002635 0.008113 -0.000912 0.002321 0.000484 -0.015247 -0.002402 0.015675 -0.000669 -0.005022 0.005852 -0.001191 0.011699 -0.005098 -0.009043 -0.005977 -0.014784 0.011153 0.005973 -0.003452 0.001679 0.006602 0.000737 0.008159 0.013086 0.016905 -0.012109 0.006839 -0.012160 -0.010310 -0.004869 -0.000160 0.012282 -0.012246 0.014631 0.001691 0.010559 0.009278 -0.001763 0.009643 0.005666 -0.012133 0.005541 -0.000907 -0.018294
driving -0.014703 0.000825 -0.004945 -0.005413 0.001403 0.006328 0.003573 0.001635 -0.001121 0.006297 -0.004817 -0.014724 -0.009996 -0.005694 -0.005121 -0.006290 0.003575 0.006937 -0.002588 -0.008592 0.008843 -0.006563 0.001625 -0.010857 0.010418 0.002402 -0.015862 -0.001082 0.013163 0.017376 -0.001678 -0.011702 0.007385 0.009992 -0.011757 -0.000342 -0.001701 -0.008564 0.009464 0.002911 -0.000981 0.017478 -0.006498 -0.004848 0.006802 0.002706 -0.006079 -0.009419 0.012753 0.005084
encouraging -0.001230 0.000202 -0.012143 -0.010781 0.003948 0.005425 0.007781 -0.013796 0.000706 0.003385 -0.006723 0.013889 0.008906 -0.007682 -0.010759 0.005346 0.002008 -0.005803 0.001414 0.013759 0.006289 0.004194 0.001401 -0.005352 0.006427 -0.002783 0.002915 -0.007788 -0.007091 0.002064 0.003643 -0.000349 0.009200 -0.005204 -0.001388 -0.006671 0.001502 0.008426 -0.004609 0.011202 -0.015870 0.000843 -0.003727 0.009976 0.003045 0.002338 0.000401 0.000039 0.004996 0.000365
existence -0.005142 -0.013849 0.004804 0.003269 0.008858 0.000968 -0.001751 -0.013253 -0.003957 -0.017235 0.010383 -0.001895 0.001240 0.000743 0.006949 -0.011045 -0.002795 0.004784 -0.005341 -0.014245 0.001111 -0.017290 0.001550 -0.001804 -0.006421 0.005852 0.004234 -0.004458 -0.009362 0.002215 0.007883 -0.009166 0.018120 0.008061 -0.011813 0.015904 0.002221 -0.003379 0.003022 0.000040 -0.001725 -0.005491 0.012481 -0.004248 -0.008663 0.002148 0.009150 0.008102 0.004565 -0.001036
fence 0.016477 0.003052 0.008553 -0.006978 -0.016897 0.008361 0.007351 -0.012851 0.009861 -0.005009 0.002859 -0.003420 -0.008485 -0.007435 0.008638 0.012332 0.013963 -0.011251 0.002117 0.000500 0.017195 -0.007934 -0.000301 -0.016482 0.000271 -0.005445 -0.012319 0.003422 -0.006856 -0.005101 -0.003550 -0.018266 -0.008252 0.000849 -0.007903 -0.005388 -0.010457 0.006058 0.003576 0.000432 -0.000164 0.001693 0.009425 0.007673 -0.008804 0.013688 -0.002127 -0.000140 -0.000795 -0.005824
flash -0.011737 0.006276 -0.005665 0.001654 -0.002287 -0.014753 0.007128 -0.006565 0.013184 -0.015177 -0.000542 0.000051 0.005633 0.010251 -0.003547 -0.004794 -0.018353 -0.011186 0.003670 -0.004318 -0.003239 -0.003867 -0.004318 -0.007645 -0.002634 -0.001713 0.012800 0.008925 0.011392 0.001117 -0.001791 0.014510 0.004201 -0.002009 -0.007703 0.011495 0.010273 -0.009699 0.007421 -0.006993 -0.007758 -0.002264 -0.002333 0.007353 0.007534 0.002853 -0.004949 -0.005469 0.005457 -0.005547
fresh -0.008123 0.001635 -0.001247 -0.002786 0.007203 -0.001182 0.002248 -0.008854 -0.014231 -0.010458 -0.007510 0.008320 -0.003334 0.002766 -0.006276 0.011266 0.001606 -0.007108 -0.002622 -0.005261 -0.012077 -0.010386 -0.000471 -0.001028 -0.000898 0.018269 0.003885 0.008685 0.003469 0.001498 0.011784 0.014317 -0.004833 0.003644 -0.011940 -0.002029 -0.010894 0.002085 -0.012518 0.014872 0.002920 -0.008979 0.004276 -0.000874 0.005941 0.000941 0.006435 0.003071 0.013850 -0.015002
friends -0.015760 0.001059 0.000574 -0.001476 0.000001 0.002587 -0.009307 -0.011844 -0.014406 -0.007708 -0.011499 0.009115 0.006212 0.006623 -0.005342 -0.005800 -0.006529 0.000065 0.001738 0.006129 0.007386 0.012586 0.005396 -0.003590 -0.004934 -0.000655 0.000821 -0.007323 -0.014184 -0.000689 0.008016 0.008829 -0.015925 -0.002674 -0.006160 -0.006244 -0.014507 0.002011 -0.013909 -0.003935 0.002560 0.000497 0.009819 0.001367 -0.011933 0.015106 -0.011292 -0.003869 0.010553 -0.006516
groovy -0.005926 -0.003357 0.003594 0.001708 -0.009156 0.003729 -0.010353 0.007595 0.007395 0.007070 -0.007956 0.012196 -0.000965 0.007348 0.001868 -0.012024 -0.010005 0.015331 -0.001395 0.009206 -0.003053 0.007110 0.014851 -0.003965 -0.003490 0.003468 0.002454 0.014977 0.009682 0.010377 0.007839 0.010282 0.006677 -0.011874 -0.000502 -0.002281 0.005686 -0.001160 0.014641 -0.000705 0.003819 0.010252 -0.000863 -0.016054 -0.002138 -0.010386 0.011211 0.000579 0.012323 0.005824
hesitant -0.002728 0.013447 0.010628 0.015016 0.002365 0.002313 0.018378 0.000332 0.005135 -0.011685 0.005367 -0.010491 -0.013126 0.009445 -0.001834 0.006877 0.006085 0.002499 -0.000797 -0.012970 0.013736 0.009265 -0.002502 -0.000375 -0.001435 -0.017073 0.004844 0.002995 -0.000426 -0.003027 0.002508 -0.001046 0.005046 0.004080 -0.006671 0.000089 0.001997 -0.007814 -0.001753 -0.009059 0.004420 0.001066 0.008104 0.000851 -0.002361 -0.000413 0.005616 0.003770 -0.007779 0.002989
hobbies -0.000570 0.003113 -0.004121 0.001049 -0.006137 -0.013044 0.004793 -0.000736 0.015667 0.001837 -0.005599 -0.003067 -0.000929 0.004012 0.007596 -0.006077 -0.006330 0.002900 -0.009005 -0.006739 0.005069 0.000363 -0.006828 0.001579 0.001366 -0.005175 0.004197 0.001994 0.010570 0.001711 0.012396 0.014330 0.010697 -0.009855 -0.001607 0.010182 -0.005760 -0.002536 0.000686 0.002207 0.001485 0.003303 -0.010859 -0.000995 0.016370 0.010642 0.000570 0.017492 -0.006068 -0.000426
hoc 0.012298 -0.016050 0.001075 0.011042 0.003064 -0.016253 0.011089 0.004589 -0.004367 0.005069 0.000747 0.002737 -0.014132 -0.008372 -0.000312 -0.010249 -0.007458 0.002080 0.003587 0.006965 -0.010213 0.012861 -0.004393 -0.017458 -0.001162 0.003979 0.000213 -0.001680 0.003109 -0.008503 0.001474 0.007386 -0.011685 0.012088 -0.012295 0.015357 0.014227 -0.003345 -0.005677 0.014958 -0.008574 0.006663 0.003951 0.003568 0.004466 -0.003610 0.013719 0.007755 0.005817 -0.017187
instrument 0.017051 -0.008492 -0.004000 -0.000595 -0.006197 0.013517 -0.012437 -0.010325 0.001994 0.005246 0.006053 -0.002732 0.008766 0.000789 -0.014975 0.001105 0.000745 -0.000679 0.015384 0.001688 -0.009680 -0.006636 -0.003076 -0.001328 0.006899 0.004069 0.000122 -0.012284 0.005391 0.007379 0.003376 0.016418 -0.003224 0.009453 -0.018827 0.005952 0.003645 -0.000404 0.011877 -0.011663 -0.002013 0.015719 -0.004830 -0.009522 0.003310 -0.004401 -0.000537 0.007457 0.015024 -0.009532
lean 0.009615 0.001902 -0.006218 0.003152 -0.014477 0.001014 -0.010209 0.003366 0.009708 0.011495 -0.003641 -0.003548 0.014691 -0.003057 0.007946 0.000633 -0.013521 0.011897 -0.007916 0.011801 -0.001233 0.004697 -0.004963 0.012583 -0.005537 -0.005285 0.005492 0.006469 -0.005358 0.006640 -0.013371 -0.000824 -0.006622 -0.013582 -0.012344 -0.001092 0.001082 -0.014183 0.005832 -0.012555 0.008667 0.005805 0.001773 -0.007623 0.009330 0.000492 -0.002443 -0.001249 -0.011160 0.002596
like 0.000518 -0.000892 0.002400 -0.003333 -0.005431 0.003248 0.001550 -0.013407 0.000885 -0.004549 -0.001977 0.019071 -0.010591 -0.000760 -0.008939 0.002118 -0.001529 -0.008116 0.011478 0.005750 -0.007832 0.009156 0.000198 -0.006894 -0.014631 -0.007136 0.008376 0.013410 0.003442 0.000067 -0.001791 0.000017 -0.001285 0.005019 -0.007738 -0.000362 0.005556 0.002960 -0.008671 0.001397 0.003879 0.010162 -0.017378 0.015632 0.001173 0.017228 0.005273 -0.001708 0.010594 -0.004774
lying -0.007191 -0.012311 0.008336 -0.000523 -0.007047 -0.002332 -0.005108 0.006628 -0.006808 0.003102 0.004925 -0.005375 0.015411 -0.003510 0.000280 -0.016177 0.002966 -0.013067 0.016335 -0.000903 -0.005062 -0.002730 0.002101 -0.008906 -0.000868 0.017940 0.006054 -0.001753 0.001967 -0.008523 -0.016084 -0.001805 -0.002251 0.008922 0.001663 0.008620 -0.007865 0.014592 -0.015076 0.001490 -0.001351 0.017352 -0.007964 0.009705 -0.002570 0.000458 -0.013962 -0.008984 0.001736 0.010423
madl -0.009606 0.000704 -0.001778 -0.009562 0.006897 -0.005347 -0.006975 -0.007502 -0.008317 0.011137 0.006845 0.006022 -0.002224 0.009171 0.008403 0.001664 -0.002523 -0.009318 0.003303 -0.000842 -0.003629 -0.001023 0.001663 0.004876 -0.005350 0.009159 0.003128 -0.007574 0.011341 0.006510 -0.007233 -0.003811 0.004047 0.005282 0.010771 0.010244 -0.013238 -0.007978 0.007889 -0.000260 -0.012170 -0.006543 -0.003008 -0.003679 -0.006759 0.002467 -0.001547 -0.009022 0.005228 -0.010247
madly 0.005499 -0.003769 0.014392 -0.005458 -0.005969 -0.008650 0.000633 -0.002720 0.006794 -0.004027 0.000856 -0.005000 0.017674 0.000880 -0.000677 0.008328 0.000533 0.000310 -0.009861 0.009736 -0.002702 0.001000 0.001711 0.009967 0.015453 -0.016306 -0.000012 -0.003694 0.001400 -0.006737 -0.005961 -0.002509 0.011388 0.008387 0.010425 -0.007623 -0.001021 -0.014096 0.013213 0.007042 0.000773 0.001970 -0.014601 -0.005902 -0.004401 -0.004104 -0.007592 0.000532 -0.002749 -0.004016
mighty -0.008024 0.008114 -0.014486 0.016906 0.006104 0.000133 -0.000642 0.002831 -0.005202 -0.000154 -0.009458 -0.009044 0.003454 -0.001350 -0.000095 0.011822 0.001887 0.008941 -0.006164 0.003852 0.009455 -0.010106 0.003544 -0.003651 -0.003157 -0.006957 -0.007472 0.001321 -0.008784 -0.005867 -0.006547 -0.014070 -0.008863 -0.005632 -0.012972 -0.015029 0.014907 -0.000150 0.014601 0.007625 0.010701 -0.016257 0.002767 0.015648 -0.009000 0.000712 0.008060 -0.008481 0.002123 0.006445
pass -0.005145 0.004185 -0.009934 0.000634 0.011907 -0.009026 -0.002296 -0.000995 -0.009792 -0.004002 0.013607 0.011241 -0.004723 -0.009757 -0.008455 0.001664 0.017742 -0.003420 0.006561 -0.003288 0.009344 0.002335 -0.006296 0.000160 -0.016968 0.000547 -0.011482 -0.009530 0.001151 0.000290 0.009637 -0.005029 -0.001065 -0.001223 -0.002780 0.003669 -0.001708 -0.003254 0.000116 0.001205 0.000018 0.005956 -0.012239 -0.005071 -0.006884 0.002341 0.000883 0.016826 -0.004247 -0.001455
peel -0.005171 0.006553 0.012349 0.001471 0.012620 0.003520 0.004175 -0.010565 -0.006339 -0.008422 0.003139 -0.014817 -0.005373 0.003335 -0.005437 -0.019049 0.000953 0.001157 -0.004686 -0.008866 -0.014910 -0.011209 0.009811 0.004726 0.001372 0.006181 0.017120 -0.006030 0.003358 0.000117 -0.002994 0.014606 -0.004272 0.002565 0.001197 0.003623 -0.008836 -0.004097 0.002584 -0.001602 0.000038 0.004726 0.010113 -0.002869 -0.014156 -0.010321 -0.000088 -0.003269 0.000093 0.006849
placid -0.009790 0.000380 0.000756 0.000039 0.012686 0.010834 0.016889 0.017921 -0.008115 0.015907 -0.000343 -0.009803 -0.007227 -0.000180 0.001809 0.015208 0.007796 0.000394 -0.009486 0.011552 -0.000581 -0.008957 0.009856 0.005458 -0.002631 0.011323 -0.007787 0.001121 0.006346 -0.002139 0.017154 -0.007885 0.007942 -0.001306 -0.003634 0.000738 0.006388 0.005287 0.001439 0.013464 -0.011903 -0.005358 0.010575 0.007133 -0.005920 -0.004840 -0.004231 -0.003670 -0.004036 0.001083
pthread 0.005045 0.008626 0.000571 -0.007537 0.004140 0.007721 -0.006560 -0.005768 -0.013071 -0.014298 -0.001469 0.004670 0.002531 0.003329 -0.011601 0.010098 0.007635 0.005291 -0.002597 -0.015280 0.010568 0.010287 0.012717 0.006660 -0.004602 0.017177 0.001971 0.014689 0.004628 0.003148 0.001605 -0.003168 -0.001583 -0.000883 -0.008574 -0.006575 -0.005334 -0.007969 -0.002799 -0.002323 -0.001477 0.007112 -0.012458 -0.005473 -0.003827 0.018611 0.014150 0.004846 0.002385 0.007075
rifle 0.009905 -0.009080 -0.000697 0.005332 -0.011321 -0.009991 0.010409 -0.002222 -0.001365 -0.005877 -0.008439 0.008176 -0.011761 -0.000371 0.005886 0.006860 0.007462 0.002544 0.011073 -0.007924 -0.001654 0.003083 0.013263 0.001917 -0.005110 0.002579 -0.001366 0.001639 0.007556 0.000784 -0.004968 0.004656 -0.003638 0.002240 -0.004715 -0.001725 -0.002744 -0.000543 0.002212 -0.000859 0.005147 0.000449 -0.005675 -0.004588 -0.000818 0.004282 0.003198 0.001439 -0.012242 -0.003745
sea 0.013459 -0.004922 0.014887 0.010463 -0.017822 -0.001056 0.003170 -0.002028 -0.003973 0.003830 0.016017 0.003928 0.003412 -0.000201 0.003272 0.000599 0.004592 -0.007133 -0.008602 -0.010590 -0.005167 -0.016594 0.014139 0.003440 -0.000265 0.003301 -0.001822 0.008254 0.011954 0.015053 -0.003679 0.001416 0.000166 -0.006347 -0.000772 0.002597 0.004138 -0.007584 -0.002183 -0.003850 -0.001144 0.003000 -0.004826 -0.010716 0.008004 0.015727 -0.002445 -0.010474 -0.005644 -0.004507
secretive -0.004453 0.001771 -0.009334 0.002408 -0.008805 0.003456 0.008586 -0.007295 0.005541 0.013788 -0.012384 0.001919 0.001925 -0.003625 -0.002916 -0.002526 -0.000730 -0.003459 0.007317 0.003424 0.002043 -0.017025 0.001471 0.013254 0.012980 -0.011958 -0.012769 -0.012246 0.009615 -0.008086 0.013592 -0.002465 -0.008471 -0.015180 0.001230 0.005311 0.005205 -0.001179 -0.003228 -0.002346 0.003399 -0.001298 -0.007879 0.000011 0.005733 0.000114 -0.005477 -0.004126 0.007653 0.009275
serious -0.010939 0.006525 0.005564 0.017701 -0.016035 -0.009761 -0.009061 -0.000386 0.005636 0.004945 -0.003847 0.005139 -0.012968 0.006619 0.017234 -0.008485 -0.007755 0.003807 -0.002167 0.002689 -0.010604 0.013869 -0.009570 0.005510 -0.003673 0.003585 -0.007049 -0.014967 -0.006295 0.005327 -0.017362 -0.013271 -0.003160 -0.006326 -0.005605 0.012218 -0.006407 -0.006956 -0.010246 0.004848 0.012168 -0.010371 -0.005886 -0.003206 0.009134 0.006401 -0.004445 0.007900 0.006639 -0.016598
sneeze 0.014481 0.004834 0.008426 -0.013858 0.008140 -0.000643 0.008645 0.000979 0.011379 0.006415 0.009509 -0.009047 -0.012084 -0.001365 -0.007095 -0.000303 -0.015895 0.008792 -0.001520 0.010844 -0.006453 0.015550 -0.003115 -0.006152 0.002057 0.011757 -0.002911 -0.004829 -0.001538 -0.013916 -0.002984 -0.004870 -0.013316 0.001100 0.001452 -0.015529 -0.018560 0.003791 -0.017150 0.005574 -0.001181 0.016597 0.006712 0.008587 0.007701 0.008521 -0.000727 0.003971 -0.005225 -0.011531
snow -0.003053 -0.007725 0.005445 0.005591 -0.011717 0.007097 -0.000036 -0.007533 -0.002787 0.010873 -0.005569 -0.013871 0.007582 0.002399 0.008666 -0.002771 0.004561 -0.001997 -0.000918 0.002954 0.003301 -0.013367 -0.003824 0.004879 -0.004652 0.002466 0.008114 0.002466 0.006564 -0.000861 -0.001916 0.002011 -0.006478 0.005796 0.008515 0.005013 0.004025 0.012426 -0.008238 -0.001271 0.001224 0.004487 -0.005893 -0.011831 -0.006598 0.010997 -0.001322 -0.005070 -0.007455 -0.002677
spot 0.004784 -0.013023 0.006065 0.003225 0.001887 -0.012129 0.009935 -0.008206 -0.010580 0.003843 -0.000441 -0.004513 -0.014658 0.002625 0.001335 -0.009979 -0.003540 -0.007845 -0.000491 0.005771 -0.009808 0.013634 -0.000796 0.005569 -0.010716 -0.013655 0.001587 0.000594 -0.012657 -0.003354 0.000533 0.010182 -0.003502 0.001000 -0.003444 -0.015242 -0.009954 -0.001661 0.012112 -0.010615 0.004237 -0.007732 -0.007722 -0.000498 -0.016109 -0.009306 -0.007537 0.005290 -0.008487 0.002363
squeamish -0.003660 -0.006242 0.004151 -0.000125 0.008163 0.009191 0.000315 0.009546 0.003592 -0.004071 0.014377 0.003108 0.009531 -0.006926 0.000482 -0.001847 -0.007760 -0.003110 -0.003429 0.011354 0.005764 0.000654 0.016810 0.007248 -0.004694 0.001276 -0.004546 0.000985 -0.000573 0.001990 0.000278 -0.011298 -0.011025 -0.000689 -0.011105 -0.016001 -0.001785 -0.005591 0.009670 0.006793 -0.014443 -0.003734 -0.011853 -0.005365 -0.001520 0.000003 -0.000823 0.004974 0.006092 -0.002398
step 0.003211 -0.005196 -0.000481 0.002003 0.002859 -0.015146 0.008077 0.011163 -0.000466 -0.008251 -0.001208 0.003335 0.003649 0.001730 -0.015965 0.003080 -0.016238 0.009702 -0.006015 -0.006089 -0.002676 -0.008543 0.007329 -0.008756 0.011503 0.004145 -0.004892 0.003203 -0.004885 0.012225 -0.004619 -0.010098 0.000361 0.013244 -0.001795 0.000143 0.003865 0.005100 -0.000875 -0.006248 0.002915 -0.004561 0.003385 -0.013594 0.003045 -0.002945 0.006153 0.000471 0.011245 -0.001363
thin -0.009918 0.007411 0.001120 -0.002188 0.003290 0.013807 -0.006100 -0.006570 0.007907 0.010139 -0.005258 0.000371 -0.005046 -0.003069 0.015821 0.003338 0.000035 -0.000908 -0.003079 -0.002821 -0.000965 -0.012536 0.000829 -0.005288 -0.000298 -0.011253 0.005333 -0.000487 -0.019101 -0.005586 -0.001144 -0.001520 0.003883 0.010992 0.004407 0.004024 -0.011656 0.009382 0.001968 -0.007704 0.003256 -0.009862 -0.014220 0.014262 0.010301 0.013007 0.005992 -0.004128 -0.015342 -0.012160
tub 0.014718 -0.006040 0.011616 0.008702 -0.007497 -0.004992 0.008096 -0.004250 -0.015309 -0.000686 -0.011954 -0.002611 -0.001171 -0.014608 0.009331 0.003499 0.013856 0.010694 -0.002015 0.005505 0.012053 -0.014760 -0.001398 0.001896 0.001733 -0.001507 0.017977 -0.006803 0.011944 0.004053 0.003921 -0.011648 -0.001825 -0.005892 0.007115 -0.003064 -0.000283 0.002835 0.005061 0.017995 -0.010706 -0.002891 0.004027 0.004611 0.001525 0.002340 -0.000423 0.005012 -0.008520 -0.002033
well-off -0.001931 0.000563 0.004323 0.005272 -0.007890 0.005430 -0.013282 -0.002090 -0.004423 -0.005878 -0.010432 0.001440 -0.014719 0.002473 0.010592 -0.007965 0.000575 -0.005122 0.008251 -0.000727 -0.001565 -0.006225 0.008879 -0.010560 0.005082 0.009996 -0.000658 -0.001255 0.005361 0.014440 0.003264 0.000344 -0.001127 0.001697 0.006000 -0.003560 0.006086 0.001721 0.002147 0.013400 -0.018418 0.009555 -0.003742 0.001766 -0.005618 -0.000797 -0.004305 0.008574 -0.003797 -0.002399
woman -0.013049 -0.009145 0.009673 -0.009166 0.006001 0.002560 0.001251 0.000186 -0.001840 -0.014477 -0.002399 -0.003049 0.006077 0.009104 0.004852 -0.003938 -0.005610 -0.012159 -0.000962 -0.002322 0.016230 -0.000862 0.000528 -0.002162 -0.000027 0.002910 0.012621 -0.016673 -0.006350 0.008920 0.014914 -0.000178 0.015239 0.011841 -0.003496 -0.001364 -0.002504 -0.004168 -0.014064 -0.007272 0.003092 0.011438 -0.004795 0.002327 0.001497 0.007088 0.003865 -0.004269 -0.016137 0.001624
yam 0.002981 0.000237 0.005950 -0.009252 0.009825 -0.000137 -0.004384 0.008793 -0.002125 0.003744 0.007111 -0.002560 0.004462 -0.004357 0.005784 0.018313 -0.004497 -0.000492 0.001655 0.001187 -0.010794 0.000981 -0.005715 0.013859 -0.000901 -0.003220 0.011169 0.002122 0.003728 -0.014437 0.002130 0.002863 0.002377 -0.007901 -0.000588 -0.011177 0.009990 -0.006864 -0.007125 -0.008606 0.001145 -0.005155 0.001694 -0.007644 -0.010549 0.005193 -0.005371 -0.000456 -0.003062 -0.007580
<unk> 0.000636 0.000838 0.000189 0.000711 -0.000700 -0.000216 0.000366 -0.001023 0.000001 -0.000104 0.000483 -0.000695 -0.000043 0.000345 0.000764 -0.000803 -0.001224 0.000284 0.000633 -0.000590 0.000914 -0.001168 0.001031 -0.000756 0.000199 -0.000398 0.001298 -0.001414 -0.000547 0.001011 0.001312 0.000547 0.000125 -0.000152 -0.001831 -0.000618 -0.001284 -0.000593 -0.000703 0.000925 -0.000788 0.001591 -0.001194 0.000072 0.000381 0.000948 -0.000327 0.000517 -0.000548 -0.001699
